digraph Tree {
node [shape=box, style="filled, rounded", color="black", fontname=helvetica] ;
edge [fontname=helvetica] ;
0 [label=<Total day charge &le; 44.96<br/>gini = 0.255<br/>samples = 2333<br/>value = [1983, 350]>, fillcolor="#e58139d2"] ;
1 [label=<Customer service calls &le; 3.5<br/>gini = 0.2064<br/>samples = 2182<br/>value = [1927, 255]>, fillcolor="#e58139dd"] ;
0 -> 1 [labeldistance=2.5, labelangle=45, headlabel="True"] ;
2 [label=<International plan &le; 0.5<br/>gini = 0.1486<br/>samples = 2004<br/>value = [1842, 162]>, fillcolor="#e58139e9"] ;
1 -> 2 ;
3 [label=<Total day charge &le; 38.185<br/>gini = 0.0956<br/>samples = 1828<br/>value = [1736, 92]>, fillcolor="#e58139f1"] ;
2 -> 3 ;
4 [label=<Account length &le; 224.5<br/>gini = 0.0557<br/>samples = 1570<br/>value = [1525, 45]>, fillcolor="#e58139f7"] ;
3 -> 4 ;
5 [label=<Total eve charge &le; 27.965<br/>gini = 0.0545<br/>samples = 1568<br/>value = [1524, 44]>, fillcolor="#e58139f8"] ;
4 -> 5 ;
6 [label=<gini = 0.0524<br/>samples = 1560<br/>value = [1518, 42]>, fillcolor="#e58139f8"] ;
5 -> 6 ;
7 [label=<gini = 0.375<br/>samples = 8<br/>value = [6, 2]>, fillcolor="#e58139aa"] ;
5 -> 7 ;
8 [label=<Total intl calls &le; 4.5<br/>gini = 0.5<br/>samples = 2<br/>value = [1, 1]>, fillcolor="#e5813900"] ;
4 -> 8 ;
9 [label=<gini = 0.0<br/>samples = 1<br/>value = [0, 1]>, fillcolor="#399de5ff"] ;
8 -> 9 ;
10 [label=<gini = 0.0<br/>samples = 1<br/>value = [1, 0]>, fillcolor="#e58139ff"] ;
8 -> 10 ;
11 [label=<Total eve charge &le; 22.67<br/>gini = 0.298<br/>samples = 258<br/>value = [211, 47]>, fillcolor="#e58139c6"] ;
3 -> 11 ;
12 [label=<Total eve charge &le; 20.505<br/>gini = 0.1876<br/>samples = 229<br/>value = [205, 24]>, fillcolor="#e58139e1"] ;
11 -> 12 ;
13 [label=<gini = 0.1233<br/>samples = 197<br/>value = [184, 13]>, fillcolor="#e58139ed"] ;
12 -> 13 ;
14 [label=<gini = 0.4512<br/>samples = 32<br/>value = [21, 11]>, fillcolor="#e5813979"] ;
12 -> 14 ;
15 [label=<Number vmail messages &le; 5.5<br/>gini = 0.3282<br/>samples = 29<br/>value = [6, 23]>, fillcolor="#399de5bc"] ;
11 -> 15 ;
16 [label=<gini = 0.0799<br/>samples = 24<br/>value = [1, 23]>, fillcolor="#399de5f4"] ;
15 -> 16 ;
17 [label=<gini = 0.0<br/>samples = 5<br/>value = [5, 0]>, fillcolor="#e58139ff"] ;
15 -> 17 ;
18 [label=<Total intl calls &le; 2.5<br/>gini = 0.4791<br/>samples = 176<br/>value = [106, 70]>, fillcolor="#e5813957"] ;
2 -> 18 ;
19 [label=<gini = 0.0<br/>samples = 39<br/>value = [0, 39]>, fillcolor="#399de5ff"] ;
18 -> 19 ;
20 [label=<Total intl minutes &le; 13.1<br/>gini = 0.3502<br/>samples = 137<br/>value = [106, 31]>, fillcolor="#e58139b4"] ;
18 -> 20 ;
21 [label=<Total eve charge &le; 27.615<br/>gini = 0.086<br/>samples = 111<br/>value = [106, 5]>, fillcolor="#e58139f3"] ;
20 -> 21 ;
22 [label=<gini = 0.054<br/>samples = 108<br/>value = [105, 3]>, fillcolor="#e58139f8"] ;
21 -> 22 ;
23 [label=<gini = 0.4444<br/>samples = 3<br/>value = [1, 2]>, fillcolor="#399de57f"] ;
21 -> 23 ;
24 [label=<gini = 0.0<br/>samples = 26<br/>value = [0, 26]>, fillcolor="#399de5ff"] ;
20 -> 24 ;
25 [label=<Total day charge &le; 27.185<br/>gini = 0.499<br/>samples = 178<br/>value = [85, 93]>, fillcolor="#399de516"] ;
1 -> 25 ;
26 [label=<Total eve minutes &le; 265.5<br/>gini = 0.2088<br/>samples = 76<br/>value = [9, 67]>, fillcolor="#399de5dd"] ;
25 -> 26 ;
27 [label=<Total day minutes &le; 138.6<br/>gini = 0.1528<br/>samples = 72<br/>value = [6, 66]>, fillcolor="#399de5e8"] ;
26 -> 27 ;
28 [label=<gini = 0.0<br/>samples = 41<br/>value = [0, 41]>, fillcolor="#399de5ff"] ;
27 -> 28 ;
29 [label=<Total eve minutes &le; 232.05<br/>gini = 0.3122<br/>samples = 31<br/>value = [6, 25]>, fillcolor="#399de5c2"] ;
27 -> 29 ;
30 [label=<gini = 0.1913<br/>samples = 28<br/>value = [3, 25]>, fillcolor="#399de5e0"] ;
29 -> 30 ;
31 [label=<gini = 0.0<br/>samples = 3<br/>value = [3, 0]>, fillcolor="#e58139ff"] ;
29 -> 31 ;
32 [label=<International plan &le; 0.5<br/>gini = 0.375<br/>samples = 4<br/>value = [3, 1]>, fillcolor="#e58139aa"] ;
26 -> 32 ;
33 [label=<gini = 0.0<br/>samples = 3<br/>value = [3, 0]>, fillcolor="#e58139ff"] ;
32 -> 33 ;
34 [label=<gini = 0.0<br/>samples = 1<br/>value = [0, 1]>, fillcolor="#399de5ff"] ;
32 -> 34 ;
35 [label=<Total eve minutes &le; 155.5<br/>gini = 0.3799<br/>samples = 102<br/>value = [76, 26]>, fillcolor="#e58139a8"] ;
25 -> 35 ;
36 [label=<Total day minutes &le; 202.1<br/>gini = 0.4608<br/>samples = 25<br/>value = [9, 16]>, fillcolor="#399de570"] ;
35 -> 36 ;
37 [label=<Total eve calls &le; 125.0<br/>gini = 0.2311<br/>samples = 15<br/>value = [2, 13]>, fillcolor="#399de5d8"] ;
36 -> 37 ;
38 [label=<gini = 0.1327<br/>samples = 14<br/>value = [1, 13]>, fillcolor="#399de5eb"] ;
37 -> 38 ;
39 [label=<gini = 0.0<br/>samples = 1<br/>value = [1, 0]>, fillcolor="#e58139ff"] ;
37 -> 39 ;
40 [label=<Total night calls &le; 118.5<br/>gini = 0.42<br/>samples = 10<br/>value = [7, 3]>, fillcolor="#e5813992"] ;
36 -> 40 ;
41 [label=<gini = 0.2188<br/>samples = 8<br/>value = [7, 1]>, fillcolor="#e58139db"] ;
40 -> 41 ;
42 [label=<gini = 0.0<br/>samples = 2<br/>value = [0, 2]>, fillcolor="#399de5ff"] ;
40 -> 42 ;
43 [label=<Total day calls &le; 133.5<br/>gini = 0.226<br/>samples = 77<br/>value = [67, 10]>, fillcolor="#e58139d9"] ;
35 -> 43 ;
44 [label=<Total day minutes &le; 173.65<br/>gini = 0.1928<br/>samples = 74<br/>value = [66, 8]>, fillcolor="#e58139e0"] ;
43 -> 44 ;
45 [label=<gini = 0.4297<br/>samples = 16<br/>value = [11, 5]>, fillcolor="#e581398b"] ;
44 -> 45 ;
46 [label=<gini = 0.0981<br/>samples = 58<br/>value = [55, 3]>, fillcolor="#e58139f1"] ;
44 -> 46 ;
47 [label=<Total intl minutes &le; 8.35<br/>gini = 0.4444<br/>samples = 3<br/>value = [1, 2]>, fillcolor="#399de57f"] ;
43 -> 47 ;
48 [label=<gini = 0.0<br/>samples = 1<br/>value = [1, 0]>, fillcolor="#e58139ff"] ;
47 -> 48 ;
49 [label=<gini = 0.0<br/>samples = 2<br/>value = [0, 2]>, fillcolor="#399de5ff"] ;
47 -> 49 ;
50 [label=<Number vmail messages &le; 6.5<br/>gini = 0.4666<br/>samples = 151<br/>value = [56, 95]>, fillcolor="#399de569"] ;
0 -> 50 [labeldistance=2.5, labelangle=-45, headlabel="False"] ;
51 [label=<Total night minutes &le; 152.4<br/>gini = 0.3346<br/>samples = 113<br/>value = [24, 89]>, fillcolor="#399de5ba"] ;
50 -> 51 ;
52 [label=<Total eve minutes &le; 200.9<br/>gini = 0.4734<br/>samples = 13<br/>value = [8, 5]>, fillcolor="#e5813960"] ;
51 -> 52 ;
53 [label=<gini = 0.0<br/>samples = 6<br/>value = [6, 0]>, fillcolor="#e58139ff"] ;
52 -> 53 ;
54 [label=<Area code &le; 411.5<br/>gini = 0.4082<br/>samples = 7<br/>value = [2, 5]>, fillcolor="#399de599"] ;
52 -> 54 ;
55 [label=<gini = 0.0<br/>samples = 2<br/>value = [2, 0]>, fillcolor="#e58139ff"] ;
54 -> 55 ;
56 [label=<gini = 0.0<br/>samples = 5<br/>value = [0, 5]>, fillcolor="#399de5ff"] ;
54 -> 56 ;
57 [label=<Total eve charge &le; 12.27<br/>gini = 0.2688<br/>samples = 100<br/>value = [16, 84]>, fillcolor="#399de5ce"] ;
51 -> 57 ;
58 [label=<gini = 0.0<br/>samples = 9<br/>value = [9, 0]>, fillcolor="#e58139ff"] ;
57 -> 58 ;
59 [label=<Total eve minutes &le; 180.85<br/>gini = 0.142<br/>samples = 91<br/>value = [7, 84]>, fillcolor="#399de5ea"] ;
57 -> 59 ;
60 [label=<Total day charge &le; 47.02<br/>gini = 0.4234<br/>samples = 23<br/>value = [7, 16]>, fillcolor="#399de58f"] ;
59 -> 60 ;
61 [label=<gini = 0.2188<br/>samples = 8<br/>value = [7, 1]>, fillcolor="#e58139db"] ;
60 -> 61 ;
62 [label=<gini = 0.0<br/>samples = 15<br/>value = [0, 15]>, fillcolor="#399de5ff"] ;
60 -> 62 ;
63 [label=<gini = 0.0<br/>samples = 68<br/>value = [0, 68]>, fillcolor="#399de5ff"] ;
59 -> 63 ;
64 [label=<International plan &le; 0.5<br/>gini = 0.2659<br/>samples = 38<br/>value = [32, 6]>, fillcolor="#e58139cf"] ;
50 -> 64 ;
65 [label=<Total eve charge &le; 22.79<br/>gini = 0.0624<br/>samples = 31<br/>value = [30, 1]>, fillcolor="#e58139f6"] ;
64 -> 65 ;
66 [label=<gini = 0.0<br/>samples = 28<br/>value = [28, 0]>, fillcolor="#e58139ff"] ;
65 -> 66 ;
67 [label=<Total day minutes &le; 304.5<br/>gini = 0.4444<br/>samples = 3<br/>value = [2, 1]>, fillcolor="#e581397f"] ;
65 -> 67 ;
68 [label=<gini = 0.0<br/>samples = 2<br/>value = [2, 0]>, fillcolor="#e58139ff"] ;
67 -> 68 ;
69 [label=<gini = 0.0<br/>samples = 1<br/>value = [0, 1]>, fillcolor="#399de5ff"] ;
67 -> 69 ;
70 [label=<Total day minutes &le; 276.3<br/>gini = 0.4082<br/>samples = 7<br/>value = [2, 5]>, fillcolor="#399de599"] ;
64 -> 70 ;
71 [label=<gini = 0.0<br/>samples = 4<br/>value = [0, 4]>, fillcolor="#399de5ff"] ;
70 -> 71 ;
72 [label=<Total intl calls &le; 6.0<br/>gini = 0.4444<br/>samples = 3<br/>value = [2, 1]>, fillcolor="#e581397f"] ;
70 -> 72 ;
73 [label=<gini = 0.0<br/>samples = 2<br/>value = [2, 0]>, fillcolor="#e58139ff"] ;
72 -> 73 ;
74 [label=<gini = 0.0<br/>samples = 1<br/>value = [0, 1]>, fillcolor="#399de5ff"] ;
72 -> 74 ;
}